digraph Tree {
node [shape=box, style="filled, rounded", color="black", fontname="helvetica"] ;
edge [fontname="helvetica"] ;
0 [label="Feature20 <= 16.795\ngini = 0.468\nsamples = 569\nvalue = [357, 212]\nclass = B", fillcolor="#f4ccaf"] ;
1 [label="gini = 0.159\nsamples = 379\nvalue = [346, 33]\nclass = B", fillcolor="#e78d4c"] ;
0 -> 1 [labeldistance=2.5, labelangle=45, headlabel="True"] ;
2 [label="gini = 0.109\nsamples = 190\nvalue = [11, 179]\nclass = M", fillcolor="#45a3e7"] ;
0 -> 2 [labeldistance=2.5, labelangle=-45, headlabel="False"] ;
}